<?xml version="1.0"?>
<opencv_storage>
<my_svm type_id="opencv-ml-svm">
  <svm_type>C_SVC</svm_type>
  <kernel><type>LINEAR</type></kernel>
  <C>1.</C>
  <term_criteria><epsilon>1.1920928955078125e-007</epsilon>
    <iterations>1000</iterations></term_criteria>
  <var_all>1500</var_all>
  <var_count>1500</var_count>
  <class_count>2</class_count>
  <class_labels type_id="opencv-matrix">
    <rows>1</rows>
    <cols>2</cols>
    <dt>i</dt>
    <data>
      0 1</data></class_labels>
  <sv_total>1</sv_total>
  <support_vectors>
    <_>
      3.69091257e-002 4.49974388e-002 6.07944541e-002 6.67525381e-002
      4.72562090e-002 3.89368050e-002 3.73266451e-002 3.97223048e-002
      3.11709791e-002 2.60239299e-002 2.78997477e-002 7.32110534e-003
      1.09752845e-002 8.29837192e-003 3.99495615e-003 -1.23823509e-002
      -2.28329692e-002 -2.01139972e-002 -3.82372253e-002
      -2.26305667e-002 -7.65336584e-003 -2.09767949e-002
      -7.09528569e-003 -6.96836878e-003 -4.18233569e-004 5.69413090e-003
      1.10252826e-002 1.11574410e-002 -7.11080618e-004 -8.20694771e-003
      -1.49164479e-002 -2.72596292e-002 -2.55869590e-002
      -5.19028353e-003 -1.37895867e-002 -1.47128645e-002
      -2.95499992e-002 -1.37726311e-003 -9.60153266e-005 5.51908603e-003
      1.15687884e-002 -7.73581071e-003 -1.81811687e-003 5.41495718e-003
      3.77571763e-004 -9.80046298e-003 -4.83340211e-003 -1.13100419e-002
      -2.54835072e-003 -1.75584126e-002 4.41816598e-002 5.90083599e-002
      5.87821193e-002 6.09877333e-002 6.05179518e-002 3.97592448e-002
      2.36929487e-002 3.57421450e-002 3.51476893e-002 2.86628064e-002
      1.61214489e-002 -2.02138512e-003 -6.01966539e-003 1.04213692e-002
      8.76629446e-003 -2.08169478e-003 -2.01602988e-002 -2.60390006e-002
      -2.75482275e-002 -2.39341017e-002 -2.65048444e-002
      -3.77560407e-002 -3.47292610e-002 -2.78475024e-002
      -4.90303524e-002 -4.87570204e-002 -4.35439125e-002
      -1.57921463e-002 -2.94967163e-002 -3.58110704e-002
      -2.45168917e-002 -1.55144259e-002 -1.25397742e-002
      -3.10304551e-003 -7.20340386e-003 -1.60597246e-002
      -2.13926882e-002 -2.11379281e-003 6.28372328e-003 1.42403673e-002
      1.45193441e-002 -4.52017691e-003 4.73609241e-003 4.25113784e-003
      1.54467952e-002 -8.42495635e-003 1.22305863e-002 1.03572325e-003
      2.01513153e-002 9.84852668e-003 4.35678512e-002 5.47125041e-002
      7.07454309e-002 5.35243303e-002 5.52400909e-002 2.56168675e-002
      2.87776776e-002 8.35450273e-003 2.32369024e-002 2.87212078e-002
      2.38449909e-002 8.70223809e-003 1.57959331e-002 -1.03403339e-002
      3.59900150e-004 -5.56249125e-003 -2.52997521e-002 -1.62624952e-003
      -6.29811489e-004 -5.61339082e-003 -5.84315322e-003
      -2.74991672e-002 -2.20138356e-002 -3.31802182e-002
      -5.80343567e-002 -5.27851731e-002 -3.17865610e-002
      -1.91883859e-003 1.31322676e-002 -1.04658296e-002 8.53643171e-004
      4.00594110e-003 8.96457862e-003 4.88096988e-003 3.00024915e-003
      -4.31112153e-003 -1.93864685e-002 -8.88445694e-003
      -1.21657429e-002 -7.98323844e-003 -4.17370582e-003
      -1.49463797e-002 -1.39724109e-002 1.14600938e-002 -1.93398085e-003
      5.71845472e-003 -4.32503526e-004 1.74612924e-002 4.90104873e-003
      2.13040765e-002 4.85669449e-002 5.41200489e-002 3.31897438e-002
      4.41979021e-002 4.45515439e-002 8.17186572e-003 1.29379379e-002
      -1.41617954e-002 -5.40675083e-003 -7.76682328e-003
      -2.02810187e-002 -2.50432454e-003 -1.09773315e-002
      -9.81064397e-004 -9.28719901e-003 -1.14488024e-002
      -2.31906073e-003 -1.10492529e-002 -1.47573382e-003
      -5.26727503e-003 -1.43425390e-002 -2.55695265e-002
      -2.45080404e-002 -2.70672925e-002 -4.50832434e-002
      -4.35653217e-002 -2.22675931e-002 9.28903464e-003 1.99212995e-003
      5.41163550e-004 4.82508633e-003 8.82888958e-003 6.53446745e-003
      3.06930090e-003 2.59443354e-002 2.66828779e-002 9.68692172e-003
      6.53306115e-003 3.18249967e-003 1.09229879e-002 5.92141878e-004
      -3.95725016e-003 9.25084762e-003 2.67994925e-002 -4.79735387e-003
      2.10513957e-002 1.88876577e-002 1.13594253e-002 1.84003692e-002
      5.02013136e-003 2.72891633e-002 3.67699303e-002 4.22082990e-002
      5.54182231e-002 3.80221568e-002 6.85474975e-003 -3.27805988e-003
      -1.79653298e-002 -4.79318164e-002 -3.03626005e-002
      -2.14327946e-002 -3.49930972e-002 -3.46423313e-002
      -5.29172504e-003 -4.67671268e-003 -3.91149633e-002
      -3.58584225e-002 -3.51405591e-002 -3.24417204e-002
      -5.07918857e-002 -2.54553258e-002 -3.24649550e-002
      -3.37201841e-002 -2.65746415e-002 -4.76794969e-003
      -8.97128880e-003 -1.17129590e-002 1.58194061e-002 -3.78238829e-003
      -1.82465818e-002 -8.85235611e-003 -1.97652495e-003 1.29312370e-002
      2.00233143e-002 9.88016091e-003 3.25732492e-002 2.33040508e-002
      4.88846600e-002 5.23690358e-002 5.46890162e-002 2.60813944e-002
      2.96073221e-002 2.84261033e-002 2.75833197e-002 2.19822656e-002
      4.08369638e-002 4.10804190e-002 1.89671721e-002 9.94780660e-003
      1.31810864e-003 -2.20350046e-002 -1.74357481e-002 -4.13588341e-003
      7.22241448e-003 3.18828374e-002 3.20428871e-002 1.63107254e-002
      1.19453957e-002 -6.09299960e-003 -1.25587918e-002 -1.36320423e-002
      -2.69817561e-003 -4.29624096e-002 -2.10591909e-002
      -5.78037417e-003 -4.39908840e-002 -4.71920967e-002
      -8.16344842e-002 -6.08755946e-002 -6.99303746e-002
      -5.77049963e-002 -7.26379901e-002 -7.12538362e-002
      -6.20431900e-002 -5.92626631e-002 -6.62156120e-002
      -4.83308248e-002 -5.44834472e-002 -6.11102320e-002
      -5.51787503e-002 -3.85092311e-002 -2.31815837e-002
      -7.17522437e-003 -1.49336485e-002 -2.25583054e-002
      -2.92690229e-002 1.31650013e-003 2.19712555e-002 3.14196050e-002
      5.30949533e-002 1.93064436e-002 1.00984415e-002 2.64815800e-002
      3.02631110e-002 3.09477635e-002 3.67647447e-002 5.58551662e-002
      2.59386487e-002 3.53152282e-003 -2.03761831e-002 -3.88265252e-002
      -4.30018082e-002 -8.50416441e-003 -4.11276799e-003 4.82855514e-002
      6.82860240e-002 6.86314031e-002 4.20633517e-002 5.14083095e-002
      3.96668278e-002 1.93835814e-002 1.14299161e-002 -2.65619010e-002
      -4.94577130e-003 -3.77571047e-003 -1.58208497e-002
      -1.64828170e-002 -2.51094811e-002 -1.98105890e-002
      -4.98277433e-002 -4.20673229e-002 -6.98838755e-002
      -6.49408996e-002 -7.47811422e-002 -5.63264564e-002
      -5.54884635e-002 -7.13840574e-002 -5.95700741e-002
      -3.20892781e-002 -2.27425899e-002 -2.75117625e-002
      -2.13576797e-002 -4.47419286e-003 -6.94118161e-003
      -1.87015794e-002 -4.97520203e-003 -2.52804393e-003 4.12240215e-002
      4.92351279e-002 6.24145493e-002 4.78855222e-002 4.33402248e-002
      5.72095439e-002 7.30700865e-002 6.93955496e-002 5.88535033e-002
      8.26108232e-002 2.84943432e-002 -6.72268681e-003 -4.40196805e-002
      1.11312862e-003 -8.91706906e-003 -6.42929401e-004 2.71809455e-002
      4.85060960e-002 9.83723402e-002 8.99693593e-002 8.81502405e-002
      6.93474188e-002 4.86551896e-002 4.05377224e-002 2.97407042e-002
      1.93416700e-002 1.81209911e-002 -3.96154122e-003 -3.02904993e-002
      -2.18752008e-002 -6.06893264e-002 -3.83897983e-002
      -5.23976721e-002 -3.32692228e-002 -5.61832897e-002
      -5.77755086e-002 -4.40771729e-002 -4.39685918e-002
      -3.73098664e-002 -4.87582497e-002 -3.03711910e-002 9.73616634e-003
      9.58896056e-003 -9.89757711e-004 -1.65911894e-002 -4.31621298e-002
      -3.76370698e-002 -2.89294738e-002 -5.53968363e-002
      -4.17048931e-002 -1.24182552e-002 8.98353662e-003 2.12387443e-002
      2.19517667e-002 2.01308429e-002 4.25905511e-002 8.21880251e-002
      8.79769921e-002 8.16686153e-002 7.28364363e-002 2.40874328e-002
      4.84132161e-003 3.09052179e-003 1.54326223e-002 5.34406044e-002
      1.31427109e-001 1.67408168e-001 1.35758027e-001 1.30409107e-001
      1.51513994e-001 1.29799783e-001 1.12432010e-001 8.11640173e-002
      6.10390939e-002 3.45508866e-002 2.61335745e-002 1.57321692e-002
      -2.31751706e-002 -1.07512940e-002 -9.63545777e-003
      -1.01795793e-002 -1.25444438e-002 -1.67322420e-002
      -1.27861388e-002 -6.02307320e-002 -6.13194369e-002
      -4.12631929e-002 -4.49684672e-002 -7.78720081e-002
      -6.73784241e-002 -4.91913743e-002 -3.43429670e-002
      -4.75548357e-002 -6.42474815e-002 -6.90215006e-002
      -4.68601398e-002 -8.11860804e-003 -9.71607119e-003
      -4.32042666e-002 -5.01532070e-002 7.12855300e-003 1.38454298e-002
      5.42156398e-003 2.94543169e-002 3.09122819e-002 5.78891635e-002
      1.02224752e-001 8.54083076e-002 9.38002840e-002 7.36638159e-002
      6.16587587e-002 2.92759258e-002 1.44962408e-003 -9.02205631e-002
      -1.21746669e-002 8.60881880e-002 1.49560988e-001 1.42091125e-001
      1.55738026e-001 5.46701401e-002 3.81626561e-002 1.07253514e-001
      9.09422338e-002 8.50638077e-002 6.47641048e-002 7.11399764e-002
      -9.94952396e-003 -3.10155675e-002 -4.34255190e-002
      -6.37723431e-002 -4.03703898e-002 -2.91348342e-002
      -4.09872569e-002 -5.56526631e-002 -6.58453628e-002
      -7.85292536e-002 -5.65079488e-002 -5.54380305e-002
      -7.30765685e-002 -8.91218185e-002 -7.67693073e-002
      -7.57951215e-002 -8.60824957e-002 -9.84768048e-002
      -5.36772162e-002 -5.57489544e-002 -4.61716093e-002
      -4.69247252e-002 -8.61178786e-002 -7.55098388e-002
      -3.52726467e-002 -2.25915201e-003 6.17182301e-003 2.09165961e-002
      3.72323170e-002 5.75511679e-002 8.53978470e-002 8.26495960e-002
      6.66245893e-002 4.78657559e-002 6.82875067e-002 7.88482726e-002
      3.28126512e-002 -1.20509043e-001 -6.48678541e-002 1.59693714e-002
      8.00654590e-002 1.19120404e-001 1.21963918e-001 7.91082680e-002
      6.72420263e-002 4.98944819e-002 3.24622914e-002 3.45292129e-002
      3.40325721e-002 6.54383823e-002 2.86894459e-002 6.48531190e-004
      -7.58537874e-002 -7.50336498e-002 -5.51178455e-002
      -5.06108291e-002 -1.07944854e-001 -1.01514287e-001
      -1.27864763e-001 -1.10280283e-001 -7.93286413e-002
      -5.08518629e-002 -6.64791241e-002 -1.04256183e-001
      -9.77385268e-002 -9.11483020e-002 -9.31462646e-002
      -1.06788635e-001 -1.04507633e-001 -8.80606547e-002
      -4.65594232e-002 -6.55411705e-002 -8.20082128e-002
      -6.14785440e-002 -6.22035610e-003 2.10445728e-002 4.58363770e-003
      2.76889792e-003 1.61391627e-002 4.88367863e-002 2.28773523e-003
      7.72860572e-002 8.21959376e-002 1.03189535e-001 9.88200456e-002
      7.42996335e-002 1.20588345e-002 -1.41500831e-001 -1.13540977e-001
      -7.33147040e-002 -8.42693727e-003 5.77079915e-002 8.05122852e-002
      5.08049354e-002 6.55872449e-002 7.26004317e-002 3.57337445e-002
      8.84578004e-003 -2.93008946e-002 -1.14486376e-002 2.15387344e-002
      -8.84963758e-003 -6.56331256e-002 -8.88967514e-002
      -7.35701025e-002 -6.98831305e-002 -8.64264816e-002
      -9.81380567e-002 -1.25597149e-001 -1.32010058e-001
      -9.70485210e-002 -4.17611040e-002 -5.83314709e-002
      -1.00887805e-001 -7.82867819e-002 -8.53309706e-002
      -6.57444969e-002 -7.54070282e-002 -9.21141356e-002
      -6.41315728e-002 -3.88412215e-002 -5.78287132e-002
      -8.30057561e-002 -5.59589081e-002 1.94935210e-003 1.92906242e-002
      2.17193761e-003 -6.28795242e-003 3.74803618e-002 2.52789799e-002
      2.16014571e-002 8.33273008e-002 5.76107465e-002 5.92493750e-002
      1.16478791e-002 -4.54523936e-002 -1.05844609e-001 -9.19000059e-002
      -6.74506724e-002 -5.73763885e-002 -3.63150425e-002
      -2.50273179e-002 -9.38459300e-003 2.10788362e-002 4.04034778e-002
      1.97707135e-002 5.40095102e-003 1.42887319e-002 2.16573905e-002
      -3.74515876e-002 8.74895975e-003 -2.12089419e-002 -8.41902345e-002
      -1.23430930e-001 -7.11613074e-002 -3.72408447e-003
      -6.81118593e-002 -1.32797688e-001 -1.17648460e-001
      -1.09068133e-001 -8.96584615e-002 -8.46594647e-002
      -3.94233540e-002 -1.19983807e-001 -1.37976617e-001
      -1.27184927e-001 -1.17136680e-001 -9.99915525e-002
      -8.06380510e-002 -5.49473353e-002 -2.41342951e-002
      -7.13162124e-002 -7.63312727e-002 -4.14326340e-002 2.14654207e-003
      2.08080877e-002 -3.45054455e-003 3.02570183e-002 2.26164833e-002
      -2.40038969e-002 9.86287929e-003 5.14726751e-002 1.23975882e-002
      -1.72055140e-002 -5.76280579e-002 -8.52880105e-002
      -9.42523926e-002 -6.31593764e-002 -4.23312746e-002
      -3.70187312e-002 -2.36442257e-002 -2.00008247e-002
      -6.02703588e-003 1.25125535e-002 3.50644588e-002 2.08578929e-002
      2.20715925e-002 1.29665416e-002 6.66811643e-003 -2.71396060e-002
      -6.79685734e-003 2.22111773e-003 -1.88370887e-002 -5.46773188e-002
      -6.04097880e-002 -1.47706764e-002 -4.71073724e-002
      -1.12528563e-001 -9.29266959e-002 -1.03370175e-001
      -6.66657239e-002 -7.80659690e-002 -3.80679183e-002
      -6.29009381e-002 -8.52935538e-002 -7.75224939e-002
      -6.02485500e-002 -6.11513741e-002 -6.26249537e-002
      -2.98311226e-002 1.73815023e-002 -4.92658354e-002 -5.96344210e-002
      -1.05559407e-002 1.75747406e-002 -7.84507394e-003 -4.43137288e-002
      -2.48202533e-002 -1.60916429e-002 1.24795986e-002 1.28358137e-002
      1.36749353e-002 -2.14133859e-002 -4.27905060e-002 -7.09720999e-002
      -6.78871199e-002 -5.71020842e-002 -5.05058505e-002
      -3.09184976e-002 -2.59716064e-002 -2.49229986e-002
      -1.29709495e-002 -5.97210415e-003 7.54744280e-003 2.82864440e-002
      4.81813587e-002 4.21524905e-002 5.65052666e-002 1.76582858e-002
      2.05874909e-002 6.33556768e-002 8.12647864e-002 1.89384893e-002
      9.82145872e-003 -1.57507360e-002 2.25000437e-002 -1.82227660e-002
      -1.30780175e-001 -1.22800760e-001 -1.09580874e-001
      -9.86177251e-002 -8.69770944e-002 -5.12338467e-002
      -8.10867846e-002 -1.10735498e-001 -1.16092041e-001
      -1.02504089e-001 -9.27606300e-002 -1.15633756e-001
      -1.18160686e-002 8.76457319e-002 3.18585373e-002 -3.01285032e-002
      1.11167096e-002 6.71298057e-002 1.10538276e-002 2.28009187e-002
      1.12392474e-002 6.58873394e-002 2.89620850e-002 1.93236768e-002
      -8.49146955e-003 -2.42122281e-002 -4.29319888e-002
      -6.32085502e-002 -5.30755930e-002 -3.35600600e-002
      -3.45827900e-002 -3.37118916e-002 -2.64347140e-002
      -1.76451430e-002 -1.28349410e-002 -1.92470779e-003 1.41598824e-002
      2.13870686e-002 2.57717762e-002 3.11191957e-002 2.39111762e-002
      4.45527732e-002 4.29212339e-002 3.01718786e-002 4.93532345e-002
      6.83684722e-002 6.15139976e-002 5.33596985e-002 4.68758866e-002
      2.88560987e-002 -8.38642754e-003 -5.50724640e-002 -4.87440825e-002
      -5.09985983e-002 -5.04421294e-002 3.57139832e-003 -1.89732555e-002
      -7.95838460e-002 -7.54388198e-002 -5.93261905e-002
      -4.74511599e-003 1.87940616e-002 6.62366003e-002 7.06044883e-002
      5.89798167e-002 1.53421573e-002 3.58966738e-002 6.56680763e-002
      6.32589385e-002 6.03200682e-002 6.11997433e-002 5.40975407e-002
      3.70131619e-002 -6.70924084e-003 -2.76422016e-002 -3.46897356e-002
      -3.64775322e-002 -2.79112514e-002 -4.79236990e-002
      -3.44494544e-002 -2.22151726e-002 -3.12896073e-002
      -2.55328938e-002 -2.05105320e-002 -7.54098501e-003 5.51598088e-004
      1.92985386e-002 1.81587692e-002 2.12252084e-002 3.40641662e-002
      4.89944220e-002 4.90168072e-002 4.89585027e-002 4.77139056e-002
      5.12820520e-002 6.94997013e-002 4.92135957e-002 4.10391577e-002
      2.27249339e-002 5.62585518e-002 4.19792160e-003 4.72128484e-003
      2.96441913e-002 6.25833571e-002 8.94458294e-002 9.67647955e-002
      7.31062591e-002 4.67995815e-002 5.10453731e-002 1.48672126e-002
      3.68808731e-002 4.35511991e-002 7.03847483e-002 5.30286357e-002
      2.02883091e-002 3.42160165e-002 5.78584671e-002 7.22166747e-002
      7.72412121e-002 7.21298680e-002 6.05010614e-002 4.36518081e-002
      7.77506083e-003 -1.30694620e-002 -3.10252719e-002 -4.03200798e-002
      -3.16324942e-002 -3.06357872e-002 -2.63200179e-002
      -2.99440604e-002 2.45506759e-003 -2.24933028e-002 -2.47263424e-002
      -1.24382172e-002 -1.71130933e-002 -6.64373161e-003 1.03764972e-002
      1.34283490e-002 1.79632027e-002 3.43274251e-002 4.39346731e-002
      5.78465760e-002 5.73123060e-002 6.22430444e-002 4.24990095e-002
      2.67924201e-002 9.07506980e-003 1.35846119e-002 1.19771520e-002
      4.00724411e-002 2.59330533e-002 8.90612882e-003 2.08954550e-002
      1.67035423e-002 2.22934168e-002 2.50294078e-002 1.45836053e-002
      1.32816695e-002 1.39609883e-002 -1.41933681e-002 1.00664794e-002
      2.52587609e-002 3.55858691e-002 2.66795959e-002 2.49257982e-002
      2.90162284e-002 3.95330563e-002 6.20300621e-002 5.42865992e-002
      5.39674014e-002 3.94130424e-002 2.52404134e-003 -2.89734490e-002
      -2.69763134e-002 -2.03068480e-002 -1.62852835e-002
      -2.92871352e-002 -2.22846717e-002 -2.84523983e-002
      -1.34888599e-002 4.93218657e-003 -3.27481260e-003 -2.32313611e-002
      -8.79206322e-003 -1.87442619e-002 -1.78778823e-003 1.92481279e-003
      1.40951211e-002 3.13698500e-002 3.39742005e-002 4.63412032e-002
      7.34071136e-002 8.32850486e-002 7.50452131e-002 5.05395979e-002
      2.66616736e-002 1.50398153e-003 -8.42518453e-003 -3.50010432e-002
      -1.73725802e-002 -1.72398537e-002 -1.23019442e-002
      -2.73346808e-002 -2.53919419e-002 -3.51140723e-002
      -4.84303124e-002 -2.64306329e-002 -2.03276705e-002
      -2.03807596e-002 -4.77400906e-002 -3.54580544e-002
      -2.21686270e-002 -1.12310676e-002 -8.71644728e-003
      -1.62999500e-002 6.26304233e-003 5.37949754e-003 5.08599058e-002
      3.72372232e-002 1.59395598e-002 2.03474681e-003 -1.82879884e-002
      -2.85748355e-002 -1.49477674e-002 -6.92506181e-003
      -2.65510827e-002 -2.35502739e-002 -1.95648018e-002
      -1.07937530e-002 1.23146386e-003 -1.78050122e-003 -3.18395160e-003
      -1.07357018e-002 -7.02841394e-003 -1.90536492e-003 5.33625903e-003
      1.51004428e-002 2.35579871e-002 4.08027992e-002 4.65052053e-002
      4.58438024e-002 5.34253865e-002 6.48026094e-002 5.74588962e-002
      5.72122671e-002 3.58832330e-002 2.54435930e-002 -1.48007832e-003
      -2.00388003e-002 -2.97279451e-002 -2.68967915e-002
      -3.45969871e-002 -4.26756106e-002 -5.09812832e-002
      -6.28743917e-002 -6.32060021e-002 -3.84770297e-002
      -4.76310961e-002 -2.12284382e-002 -5.38791716e-002
      -3.83235849e-002 -2.52746162e-003 -1.55298254e-002
      -1.03890803e-002 9.23291501e-003 2.21665986e-002 2.39320882e-002
      2.63845604e-002 8.66117701e-003 -5.28500369e-003 -2.62908125e-003
      7.72827165e-003 1.37767696e-004 -1.19443592e-002 2.14840562e-004
      -1.64957587e-002 -1.51047623e-002 -4.81240172e-003 3.68923997e-003
      -3.58266290e-003 1.32861715e-002 -3.44294938e-003 5.71943447e-003
      -5.05756121e-004 -3.18476325e-003 2.71044043e-003 1.22310296e-002
      2.08224412e-002 3.12195569e-002 4.11837138e-002 3.95056009e-002
      5.83801568e-002 5.39465025e-002 2.81213764e-002 3.27502675e-002
      2.38413569e-002 1.43989120e-002 -3.69302533e-003 1.95969059e-003
      -1.66363120e-002 -2.45852955e-002 -3.07008773e-002
      -2.30323933e-002 -1.92000940e-002 -3.83444019e-002
      -2.84451842e-002 -1.93702541e-002 -2.58278865e-002
      -1.58937685e-002 -1.85347665e-002 4.96992283e-003 1.74291637e-002
      7.05646537e-003 1.03925932e-002 1.56659778e-004 8.68848246e-003
      3.75871756e-003 2.05747765e-002 2.26527881e-002 1.27494708e-002
      1.42596764e-002 1.96213555e-002 1.47591652e-002 -4.82328841e-003
      6.03382615e-003 -1.66144334e-002 -1.85644496e-002 -1.13416696e-003
      1.92685169e-003 4.14688559e-003 1.93122048e-002 3.64600774e-003
      8.01775418e-003 -3.86899943e-003 -3.28364968e-003 3.02221812e-003
      1.12787001e-002 1.36441709e-002 1.49267213e-002 3.01140193e-002
      2.52934173e-002 4.93453853e-002 4.73629646e-002 3.14467549e-002
      3.66187692e-002 8.20744410e-003 -6.26072846e-003 2.33521801e-003
      5.51980827e-003 8.83101602e-004 -1.66241881e-002 -1.29303085e-002
      -1.81081295e-002 -7.95070175e-003 -2.38019135e-002
      -1.41812349e-002 5.39978594e-003 3.61725292e-003 -9.28313658e-003
      -5.67148486e-003 8.03089142e-003 1.49985831e-002 4.45573451e-003
      8.32842104e-003 9.70927346e-003 1.61571968e-002 2.08741743e-002
      4.34469357e-002 3.40237506e-002 9.79615003e-003 1.11258458e-002
      2.01112516e-002 7.60337990e-003 8.07433296e-003 4.45292890e-003
      -8.15730263e-003 -1.56636126e-002 -1.17978342e-002
      -1.29027031e-002 7.69709982e-003 1.47295268e-002 1.02202725e-002
      1.25897191e-002 6.92803587e-004 1.21103711e-002 -1.53946225e-003
      9.85010993e-004 1.98702849e-002 2.71180943e-002 1.58067178e-002
      2.00827476e-002 4.92481217e-002 2.42560990e-002 3.16686109e-002
      3.81928682e-002 2.79623903e-002 -9.84679908e-003 -2.24709064e-002
      3.19479936e-004 4.21065697e-003 1.00912591e-002 -1.50724268e-002
      -8.75039026e-003 -3.06496187e-003 -1.18458727e-002 3.82010662e-003
      1.79316872e-003 1.80800110e-002 -3.98072321e-003 -6.92780735e-003
      1.89724634e-003 1.18618058e-002 2.37184260e-002 2.10086927e-002
      1.75416358e-002 2.98497006e-002 2.70846710e-002 2.81587150e-002
      2.33789664e-002 -1.85575383e-003 6.13145158e-003 1.57037061e-002
      8.87137838e-003 6.80632936e-003 6.83898665e-003 -2.93156486e-002
      -2.02568248e-002 -1.94433667e-002 3.93336685e-003 -1.23846775e-003
      1.54617410e-002 1.16591873e-002 8.18535499e-003 5.68032172e-003
      7.20397057e-003 1.52811427e-002 7.19625503e-003 1.11928452e-002
      1.95817836e-002 1.68228410e-002 2.55544893e-002 3.12457476e-002
      3.09635419e-002 1.79114211e-002 1.93424728e-002 1.55466292e-002
      1.10421935e-002 8.27041175e-003 -5.15522063e-003 -6.59149745e-003
      -2.00435687e-002 -1.74328703e-002 -1.87937990e-002
      -7.10957544e-003 7.14954315e-003 3.47833149e-003 1.10662300e-002
      8.06369260e-003 -1.02503477e-002 -7.95489270e-003 -8.40686541e-003
      6.66123291e-004 4.67365328e-003 3.27717629e-003 4.94187698e-003
      1.35841127e-003 -4.05661017e-003 4.13840730e-003 3.85944173e-003
      1.14541026e-002 2.53529828e-002 1.30612776e-002 1.46476356e-002
      2.91850977e-003 -3.83718451e-003 -5.51124150e-003 -1.69692039e-002
      -2.23445911e-002 2.39314698e-003 -1.02967536e-002 1.82386115e-002
      2.35618111e-002 1.53906802e-002 5.14940638e-003 1.07517010e-002
      7.38364831e-003 1.44620361e-002 2.10794695e-002 1.38688143e-002
      1.69955213e-002 2.94351410e-002 1.52892517e-002 2.20737997e-002
      7.49239093e-003 -8.38192087e-003 6.40988443e-003 3.71942180e-003
      6.37085829e-003 9.18888208e-003 4.55025164e-003 -8.06392916e-003
      -2.29952727e-002 -2.01341417e-002 -5.90965152e-003
      -1.61989348e-003 -7.97386561e-003 -1.45815043e-002
      -1.41054085e-002 -1.73283797e-002 -1.69194303e-002
      -1.05063086e-002 -2.82519613e-003 -1.01024071e-002
      -9.96025372e-003 -1.07874617e-003 -1.91693231e-002
      -6.86121359e-003 -3.66937858e-003 -4.72289929e-003 1.16665215e-004
      1.03079528e-002 1.37598170e-002 1.00247785e-002 5.64320339e-003
      -1.02750503e-003 -4.53735329e-003 -1.88471004e-002
      -1.15488544e-002 2.65566912e-003 1.39508769e-002 1.98189225e-002
      2.37810146e-002 2.19479669e-002 -9.52652190e-004 7.42495200e-003
      1.19649526e-002 2.50374768e-002 6.76386151e-003 1.75738540e-002
      2.57503837e-002 2.09349208e-002 2.17341315e-002 9.55801085e-003
      7.13017350e-003 -3.08835483e-003 -6.82797935e-003 -6.78453967e-003
      2.04029982e-003 -8.20067711e-003 -3.43747661e-002 -2.58435328e-002
      -3.18736322e-002 -3.44002619e-002 -3.25837247e-002
      -3.98544148e-002 -4.38676663e-002 -3.76322754e-002
      -3.11738420e-002 -2.86753010e-002 -1.90095790e-002
      -1.37252575e-002 -1.91304684e-002 -1.41385365e-002
      -7.14833150e-003 -1.28953615e-002 3.35358456e-003 -6.67286012e-003
      4.79883002e-003 6.26571011e-003 6.72247726e-003 1.10735437e-002
      9.09137167e-003 1.45804444e-002 6.59532961e-004 5.25203533e-003
      -5.82523597e-003 -1.64219551e-002 9.08295624e-003 1.30409300e-002
      2.60463972e-002 2.05244999e-002 1.68486238e-002 2.68925130e-002
      1.69769954e-002 1.30125908e-002 1.84297096e-002 1.31561831e-002
      1.75541025e-002 2.25691516e-002 1.01319458e-002 1.82174928e-002
      1.00832041e-002 2.06217915e-002 2.82617025e-002 1.08476765e-002
      -6.18590182e-003 3.75338760e-003 7.01846601e-003 -1.45064648e-002
      -1.18598295e-002 -1.64883863e-002 -1.44378440e-002
      -3.22601795e-002 -3.66248190e-002 -3.07223983e-002
      -2.22826172e-002 -1.96867250e-002 -3.67669798e-002
      -9.08262935e-003 4.66088811e-003 -2.73219310e-003 -4.68106428e-003
      4.06679325e-003 1.15034292e-002 1.03808250e-002 3.21210711e-003
      2.75758328e-003 1.25316586e-002 -1.36218441e-003 2.13974416e-002
      1.15396883e-002 3.60998651e-003 1.50477113e-002 1.05261626e-002
      4.52951575e-003 -7.32381456e-003 -4.61671175e-003 1.56912562e-002
      2.71675792e-002 2.01465879e-002 3.79392765e-002 3.37276496e-002
      2.52516661e-002 1.93171408e-002 2.90938057e-002 2.37532556e-002
      2.14041620e-002 2.10488662e-002 3.29999030e-002 1.58203673e-002
      4.08609863e-003 1.99325848e-002 1.92433335e-002 1.64107364e-002
      9.26117506e-003 3.47765489e-003 -9.59893689e-003 5.81365079e-004
      -1.83827188e-002 -1.50526604e-002 -2.30832528e-002
      -9.55484249e-003 -1.87953748e-002 -3.18121724e-002
      -2.66683586e-002 -1.29996045e-002 4.60919412e-003 -9.87627823e-003
      -5.92890102e-003 2.03278358e-003 2.14438047e-003 7.34037673e-003
      1.14601580e-002 1.28905261e-002 1.84540488e-002 1.24285966e-002
      1.85595676e-002 1.04951467e-002 4.27998137e-003 1.41974231e-002
      9.87267122e-003 1.22289071e-002 2.99271150e-003 -5.97642735e-003
      9.42790322e-003 9.97682475e-003 1.22606112e-002 2.15493031e-002
      2.67622024e-002 2.69694868e-002 2.34213527e-002 3.36455703e-002
      2.75811981e-002 2.94311643e-002 1.92334428e-002 6.00398006e-003
      1.76505055e-002 1.56814232e-002 1.92482900e-002 1.88890565e-002
      8.13110173e-003 1.85684767e-002 1.08446348e-002 1.05847707e-002
      4.71543148e-003 -4.48657945e-003 -2.45775804e-002 -2.11098399e-002
      -1.72388554e-002 -1.85527205e-002 -1.75593514e-002
      -2.32345276e-002 -2.12564655e-002 -2.84906812e-002
      -3.80581319e-002 -1.71116684e-002 -1.06080342e-002
      -1.02274567e-002 -1.06060496e-002 -1.27781089e-002
      -1.19622899e-002 -8.45080987e-003 1.01381484e-002 1.55658731e-002
      2.62197684e-002 6.76090829e-003 1.85549576e-002 3.56639130e-003
      -1.23785948e-003 1.61644886e-003 4.46098391e-003 -1.01445150e-002
      -6.32842351e-003 8.68887175e-003 1.32877529e-002 6.41830219e-003
      3.30364890e-002 2.32767276e-002 2.61729639e-002 4.19220738e-002
      -7.21807301e-004 2.30995603e-002 3.74864414e-002 2.06209682e-002
      2.54072640e-002 7.11479457e-003 2.12830510e-002 1.47423176e-002
      2.30911113e-002 1.73850022e-002 1.18631506e-002 -4.21149051e-003
      1.47337014e-005 2.10352591e-003 4.37051384e-003 -9.40224156e-003
      -2.89590494e-003 -2.20963862e-002 -2.77195293e-002
      -1.86557788e-002 -2.79345140e-002 -1.79780163e-002
      -2.39128936e-002 -2.02380996e-002 -3.49281505e-002
      -3.73505428e-002 -2.78880745e-002 -1.92089006e-002
      -2.22651642e-002 -1.53568862e-002 -1.55027211e-002
      -2.27166638e-002 -5.42652467e-003 5.91728464e-003 1.20027103e-002
      1.22447982e-002 1.01107936e-002 2.08074762e-003 -9.29493643e-003
      6.33885153e-003 5.36309741e-003 -1.21300761e-003 -4.93959663e-003
      2.10127868e-002 1.43507635e-002 1.73877086e-002 1.55481007e-002
      2.57358011e-002 1.54551622e-002 2.44227592e-002</_></support_vectors>
  <decision_functions>
    <_>
      <sv_count>1</sv_count>
      <rho>-2.2908317035519956e+000</rho>
      <alpha>
        1.</alpha>
      <index>
        0</index></_></decision_functions></my_svm>
</opencv_storage>
